digraph Tree {
node [shape=box, fontname="helvetica"] ;
edge [fontname="helvetica"] ;
0 [label="id <= 5000.0\ngini = 0.5\nsamples = 7500\nvalue = [3763.0, 3737.0]"] ;
1 [label="gini = 0.0\nsamples = 3737\nvalue = [0, 3737]"] ;
0 -> 1 [labeldistance=2.5, labelangle=45, headlabel="True"] ;
2 [label="gini = 0.0\nsamples = 3763\nvalue = [3763, 0]"] ;
0 -> 2 [labeldistance=2.5, labelangle=-45, headlabel="False"] ;
}